~o
<STREAMINFO> 1 39
<VECSIZE> 39<NULLD><MFCC_D_A_0><DIAGC>
~h "proto"
<BEGINHMM>
<NUMSTATES> 5
<STATE> 2
<MEAN> 39
 -1.012254e+001 -7.264226e+000 -5.370609e+000 -9.712223e+000 -8.047407e+000 -5.681805e+000 -5.715530e+000 -8.866713e-001 -3.691204e+000 -1.679087e+000 -2.372116e+000 -1.992831e+000 5.435896e+001 3.500786e-003 3.751630e-003 -3.257445e-004 8.666397e-004 4.723764e-003 -5.870885e-004 2.242961e-004 -5.077728e-003 -4.136859e-003 -6.560616e-004 -4.315113e-003 -2.692402e-003 3.635559e-003 -9.592683e-005 -2.103158e-004 1.351117e-004 -1.661481e-005 -3.384908e-004 -2.177467e-004 -1.438305e-004 1.636888e-004 2.628795e-004 5.652815e-006 2.228666e-004 2.034386e-004 -1.619475e-005
<VARIANCE> 39
 1.019786e+002 5.942492e+001 7.969102e+001 8.208926e+001 7.801923e+001 7.487221e+001 7.644022e+001 6.621936e+001 6.555122e+001 4.695240e+001 4.796211e+001 3.524432e+001 1.175200e+002 4.562054e+000 3.524029e+000 3.336633e+000 4.190800e+000 4.308127e+000 4.198907e+000 4.401058e+000 4.303515e+000 3.945027e+000 3.243079e+000 2.985245e+000 2.440658e+000 5.602147e+000 6.298034e-001 5.834209e-001 5.080934e-001 6.770245e-001 7.052047e-001 7.098504e-001 7.490557e-001 7.594697e-001 6.945505e-001 5.957313e-001 5.417506e-001 4.463942e-001 8.994048e-001
<GCONST> 1.383837e+002
<STATE> 3
<MEAN> 39
 -1.012254e+001 -7.264226e+000 -5.370609e+000 -9.712223e+000 -8.047407e+000 -5.681805e+000 -5.715530e+000 -8.866713e-001 -3.691204e+000 -1.679087e+000 -2.372116e+000 -1.992831e+000 5.435896e+001 3.500786e-003 3.751630e-003 -3.257445e-004 8.666397e-004 4.723764e-003 -5.870885e-004 2.242961e-004 -5.077728e-003 -4.136859e-003 -6.560616e-004 -4.315113e-003 -2.692402e-003 3.635559e-003 -9.592683e-005 -2.103158e-004 1.351117e-004 -1.661481e-005 -3.384908e-004 -2.177467e-004 -1.438305e-004 1.636888e-004 2.628795e-004 5.652815e-006 2.228666e-004 2.034386e-004 -1.619475e-005
<VARIANCE> 39
 1.019786e+002 5.942492e+001 7.969102e+001 8.208926e+001 7.801923e+001 7.487221e+001 7.644022e+001 6.621936e+001 6.555122e+001 4.695240e+001 4.796211e+001 3.524432e+001 1.175200e+002 4.562054e+000 3.524029e+000 3.336633e+000 4.190800e+000 4.308127e+000 4.198907e+000 4.401058e+000 4.303515e+000 3.945027e+000 3.243079e+000 2.985245e+000 2.440658e+000 5.602147e+000 6.298034e-001 5.834209e-001 5.080934e-001 6.770245e-001 7.052047e-001 7.098504e-001 7.490557e-001 7.594697e-001 6.945505e-001 5.957313e-001 5.417506e-001 4.463942e-001 8.994048e-001
<GCONST> 1.383837e+002
<STATE> 4
<MEAN> 39
 -1.012254e+001 -7.264226e+000 -5.370609e+000 -9.712223e+000 -8.047407e+000 -5.681805e+000 -5.715530e+000 -8.866713e-001 -3.691204e+000 -1.679087e+000 -2.372116e+000 -1.992831e+000 5.435896e+001 3.500786e-003 3.751630e-003 -3.257445e-004 8.666397e-004 4.723764e-003 -5.870885e-004 2.242961e-004 -5.077728e-003 -4.136859e-003 -6.560616e-004 -4.315113e-003 -2.692402e-003 3.635559e-003 -9.592683e-005 -2.103158e-004 1.351117e-004 -1.661481e-005 -3.384908e-004 -2.177467e-004 -1.438305e-004 1.636888e-004 2.628795e-004 5.652815e-006 2.228666e-004 2.034386e-004 -1.619475e-005
<VARIANCE> 39
 1.019786e+002 5.942492e+001 7.969102e+001 8.208926e+001 7.801923e+001 7.487221e+001 7.644022e+001 6.621936e+001 6.555122e+001 4.695240e+001 4.796211e+001 3.524432e+001 1.175200e+002 4.562054e+000 3.524029e+000 3.336633e+000 4.190800e+000 4.308127e+000 4.198907e+000 4.401058e+000 4.303515e+000 3.945027e+000 3.243079e+000 2.985245e+000 2.440658e+000 5.602147e+000 6.298034e-001 5.834209e-001 5.080934e-001 6.770245e-001 7.052047e-001 7.098504e-001 7.490557e-001 7.594697e-001 6.945505e-001 5.957313e-001 5.417506e-001 4.463942e-001 8.994048e-001
<GCONST> 1.383837e+002
<TRANSP> 5
 0.000000e+000 1.000000e+000 0.000000e+000 0.000000e+000 0.000000e+000
 0.000000e+000 6.000000e-001 4.000000e-001 0.000000e+000 0.000000e+000
 0.000000e+000 0.000000e+000 6.000000e-001 4.000000e-001 0.000000e+000
 0.000000e+000 0.000000e+000 0.000000e+000 7.000000e-001 3.000000e-001
 0.000000e+000 0.000000e+000 0.000000e+000 0.000000e+000 0.000000e+000
<ENDHMM>
